22.62988448397968
50.48149772537919
-13.712624585421143
11.36187908031953
-11.081449438572923
19.77119080323446
-5.40051656460635
-17.480610427664192
11.515231119138495
-14.210364150313822
52.56683559583655
22.312229981197355
-426.6545246195413
144.43216408487874
-4.79508633474725
49.84131998667658
57.91151226673221
78.15503919319677
100.78908033315005
80.09997677485865
107.1032146922028
54.976807290608924
161.48745029037386
127.74375414372243
18.269575540254714
168.32689587093338
-6.103505447529082
117.54773387847047
58.4834763630254
206.67626655662795
-15.094537133871949
75.48847508812369
79.58265581095313
68.55858322347076
-12.056317265121413
165.7525034044321
-11.853052727140318
209.75564936138383
79.217478182729
157.3944364531991
87.19311371270169
221.80783687035944
-141.66126258673245
149.01161583233795
71.05434083433013
218.0698897224127
40.758353305774065
69.72661369498293
1.4531919491133112
91.67066140750319
9.341615279843348
100.34929230942151
30.860642692137446
96.43507657309046
64.51057447726767
34.595514897279116
-10.9837149019096
95.54092672730854
-12.278963199677804
95.69237146624356
-5.353355425480983
65.35972739033029
50.88761451061723
199.045009506866
-11.83728407043158
76.49257977606618
-136.68122770346503
155.66615763774038
-44.25143566133781
119.75052361675692
-12.986291534569459
96.69080671658821
7.358013409530341
116.94024592745733
36.370553339163074
78.49908643124412
53.973238398370576
25.400606240882073
72.66565772538615
42.34937678064748
105.61974525991329
-9.29832570992715
62.99566268344122
49.800264779574235
-14.12151129773233
-7.539498660469208
55.49854644973464
22.741104459540544
46.39602817339087
-0.4595757004033512
42.02022779314334
-15.149052995445473
72.83210782476166
4.228729853334693
225.67235138131542
-47.08894637528
197.9774375425663
-96.07281859272409
94.86475319703165
-109.64200371822247
68.01148024356019
-13.319254871629777
8.181387378477313
9.524431730312752
8.815395471499881
22.384438266937547
20.690835200277387
-12.453017022558534
26.756993541646203
-13.412851368255337
47.723987832362994
-18.22271656293557
-75.94755729534482
12.121140023075395
57.92596591731702
-130.5620590098719
84.62524291434751
-152.19156947132396
11.948919515162405
-24.52790206101174
65.34358832531373
-17.21488375823002
38.722889241337576
-12.29488264307768
64.20316142647157
-12.229412121639703
37.015336581728455
-10.622703244800569
15.177908876505589
81.8562512104411
30.545191245869127
7.979221768553836
-14.500403763353642
9.214878924233604
21.422733824289665
37.337379091559995
-14.15723166432665
105.29987815025888
-13.028467545227931
53.990396602960274
-12.138691910928598
72.36121468557329
-262.69853695023824
108.75842018958937
-7.15340677659554
84.62829090938148
-46.20401601600996
40.8433985108131
-90.6693810069237
41.820087623005556
-9.411235105904366
-14.072145195207197
47.58469087326921
-13.133787643155442
53.79206346756734
4.672273168438792
3.3059384669551672
-13.028459521858506
-9.438160895728114
-11.865497125880948
32.12339435082171
-9.144683473061223
36.298782025149
-12.322161764559858
-7.835862120228852
-14.880770910825408
14.308709920315925
-20.84515195297293
26.76415787132276
-21.717925297199322
5.2771515952136365
-2.316431992327767
15.844805595440532
-8.906813571658239
36.299563000069746
-10.726962930288225
-41.533608666863074
3.6010602879023246
16.820200951629666
-11.42897166597786
6.47341432994038
5.215306810204149
12.638642555611245
69.56435926354915
-13.800021435636456
42.64398106761064
-13.14851922199267
59.29878775958376
-177.39858888565817
36.93254961934259
-79.31828686157066
54.97131390782054
-120.78604172756626
53.20008196470975
-13.781891541056755
0.40996635645443824
-73.38883793023322
49.457068961982365
-16.34878942380953
50.13364781204706
52.62678047105539
40.45116894168122
-13.324405796715538
34.12240427830195
-14.725383599750932
34.814257982135544
-14.400197433493979
35.00668333085522
-211.69496537590697
35.590894308698935
-34.219332556388494
4.25448887009323
-28.39110856526045
5.775949234878272
-62.32491556832884
35.30012323586598
-13.674510468974635
-14.01658021978775
34.08224773432913
-33.68675727399198
34.20011204954551
-40.84769680686311
49.839018741669186
-12.161146546777953
22.1217991421632
-7.399500582112524
-29.493129011496553
-7.751227683121901
-14.91637154178173
2.2222702203422022
-36.492670067677274
24.40930396082977
-8.315496077256386
5.449818195763979
-10.308874673394772
-15.124073217716138
-14.042015622028124
1.0877855168695985
-43.44143616251531
14.599741303325972
-10.639960307665266
-154.83312072938202
29.939280492566862
-2.6747136252879935
9.06001110783485
-47.90663228675682
21.57817362823741
-14.46624617341203
28.434940452261362
-101.43621536595298
27.797255194148917
-76.65807252533543
27.535556542215627
-7.833251207085577
27.318607532310153
-10.51051326946733
-10.924292073374861
-9.138117320328524
-2.358511095531928
-0.6416140547305658
-16.458956174714753
-5.029645514081178
-13.661619316122195
-5.557237594629782
-14.75745508653259
-6.766851690222461
-14.352250122364296
15.464827393599078
-14.532085431923324
23.070060783260637
22.23681916841328
-13.03456374531325
22.263715152282018
-82.31964485340406
-6.850072908311073
-1.4464901916685275
-12.555195231042958
20.66856635723993
-14.106641617495844
20.019877122392288
-15.430655624222673
-15.179506088821782
-2.4663559582590673
-14.246906249425296
17.66206414463703
-39.91043915003526
37.68015818399231
-7.37266377145858
16.642024580297573
-17.194684915641677
15.955676434985817
-34.093644182860835
14.923711098621279
-12.779949612764145
14.6717407293983
-12.431373968217533
0.1676641362779413
-21.27288467878375
1.5457930134933697
-14.940108140386466
-0.5652083390750994
-11.727438129209617
11.301949300121699
-7.241863913184907
7.015934455483604
-8.584665315982848
-4.529496619698886
-7.74319986622769
-7.985850419800218
-12.694555247981892
-24.730836625617147
7.788719051268808
-6.482480882959093
7.162320772081089
-69.74145166257252
-15.328742391185372
-100.4046862641796
5.286955780754695
-3.1146829885056926
-14.72518077709776
-15.313693847467636
9.732025568576708
-10.7449807196531
2.6119072814772863
30.045107428373598
1.7558019642048834
-13.230438218008704
-14.868669374853928
-9.889606868423526
12.86453942025548
-5.149062272818249
27.1656282081903
15.294132083046135
0.6164942823620195
-12.014856845156855
0.2554059004447584
-11.399101253408222
-3.0095057696738703
-6.306429814254613
0.3271268526227257
-12.503917548451463
-21.466510668573516
-34.41719496813915
0.4329902632502667
-0.9146460791406595
-4.524884959030471
-11.507662071879038
-247.69083487886343
0.5812397918186439
0.3190751595559005
0.4283230728901477
-13.076654814254304
-16.939765469634143
23.30781849603221
-14.43052301134043
-49.93278085036855
-53.173667334448425
-10.92676067785988
1.546553630578731
-52.518252691301925
-10.88926879298208
0.06946210017244947
0.7111076591419316
-8.937533395940044
0.23555281572859266
0.7300259827318502
-3.7949146219678944
0.28156983165162697
-63.959647108373844
0.25282250809349216
0.14118972152566456
-12.949502863947428
0.6383363359552677
0.8711232846685796
0.14944187988702218
-20.085068538137214
0.16061076927671591
0.3379241270921538
-14.629433109689112
-11.373752193474179
0.8493996216554581
0.11809122532050287
-10.86632294979551
-24.429751804595977
-12.61815191861986
0.6317968612578079
22.206330088933573
0.8754183989581055
-3.3049926616185035
0.4431962722131162
-15.991739711313132
-12.23248192281758
-92.5895528644887
-1.68682047787402
-11.807897326501017
0.6055084989075108
-12.849179615820796
0.7861656770684557
0.5363234569735857
0.23383955818872415
-17.84101717473563
0.35828914957352864
-47.88703569223159
29.036726444388204
3.4076319322920265
0.8779607007274318
-115.88767094313421
0.8174599971804618
-7.166917381583753
-223.3449920759187
0.5473698385165809
0.1460002813879715
-10.048063232205152
-55.05546385199546
-7.493441920240505
0.24305073264100308
4.687127881769026
-30.525509333913938
-14.131572891332818
-27.4143211127073
6.641830820853187
3.79678544835898
-43.487635385850986
-5.482551371622472
-11.03729039109774
-1.1696747898925013
4.477094495032131
-2.022980462852247
-6.202431888260154
0.09705373940400297
0.5075001909911486
0.5447123068680129
0.1591330088278925
-25.96181789728868
-14.070352312454714
-14.513234656048985
0.11718830150324411
0.45666694334272406
0.7685769349955304
0.518257109386297
0.6025282505288463
-180.92985331747994
-34.600624525830284
0.3353299891754854
-11.38445513167406
0.3070887618655628
-17.005571592728455
-160.34347563938005
0.35734148555252354
-14.674849630493217
0.9371985205790991
-11.223111711933626
0.45621306069520706
-7.004469201016546
-22.63994177053236
0.8535645269593546
-13.71330144857586
0.8332473011287022
-24.651559907243016
-203.60793343885686
-12.80612212088091
-14.468729957206442
-14.881049044214718
0.5217611951032808
0.8122264104377996
-9.908412924379743
0.725468552214709
-57.57227891042691
0.20935463918342445
0.25500806442099844
2.066885043328765
0.702787780352664
-1.4268263400203351
-18.03146554846605
-8.126699678466785
0.3362343622120718
12.375560922674882
23.84232011997249
-11.410666627385343
0.4783407236783317
0.3730295332830963
0.24233597427632447
-9.921841172398736
0.6788099194212158
0.9085548138962954
2.8511151969213677
-49.80867641728835
0.6123274472948051
0.7122396730989563
0.6302656882569954
0.31541840369662966
-65.30656709364064
0.7327690085543787
-83.83596831576416
0.19280214775499194
-15.115235149162062
-2.279290446832843
0.6657281044201392
0.24568460210764873
0.44987088171184186
-14.916700077236506
0.5035328578232151
0.8735871995400074
-196.5739223640283
-126.68879061812335
-19.260077150897086
-292.02276294771843
-16.784221494525347
-38.37196019220276
0.6830064047934241
-30.378052151756318
0.27981520268556603
-12.919170442005973
11.605038807008007
0.7570754255706177
-15.77080133748127
0.37663989269135145
-12.297246645671398
-13.22611414323784
0.49790398051162044
0.4274481380778694
0.9272358561437186
-14.746234409492917
-169.60814452461295
0.5561090970657406
-10.925706248605204
0.06336826325705491
-13.64990832730024
-17.482017583276434
0.15332252044780426
0.44235059336966387
0.41199657538575796
11.902941108656192
-44.94192554988779
0.5296614477637472
-15.268288888784786
0.09087563652659525
3.785291528799661
-14.418991243388671
0.23861296110375685
0.2191819947681262
0.21183783877938334
-11.26094928036205
0.8901464158650109
-10.626315838794396
0.867183343862247
0.31633561745932837
25.869049561626504
-14.002663229471883
-12.569903443047433
0.592719286922491
0.13898407192199136
-3.7188456028753865
-14.423436335276078
-49.98201286874881
0.7255641633977246
0.3225680814423263
0.9347886096884992
0.4343624383222727
0.3006633920900611
0.22569580455047666
0.8516085293039302
-34.22771868022113
-14.058557505531274
0.1607331114830705
-10.662049731561718
0.35229825440877327
-7.338990678573211
27.28651013378543
-15.385132315256156
0.18126961122378826
-9.323818408706007
21.191970316700694
-13.800163979314261
0.23066710514355393
-15.553085772338932
0.5463285857226305
0.5350412910578277
-14.468556413630555
0.3560767387985919
-16.51109422762851
-8.426961564039427
0.6511298069660739
-119.83928512339116
0.8925820675038703
0.45093246523645003
-105.27123365400777
0.07914147224663581
-9.812760448764736
0.4331495349612595
0.8873029107241043
0.9399793479701897
0.6078900912989359
-10.439990615897344
0.2376428650459208
-11.546151578909758
-32.784015011192295
0.4515403791928889
-12.412067756292327
0.25465224079829585
-59.042593345815696
0.6959035220530294
0.5293681467524881
0.20774805861443935
0.9339035549231451
-12.255604437258368
0.4103398401350945
0.8150324481358167
0.16348601560928144
-12.173890999137154
-34.596114359514765
-12.544455298886119
0.4787931845759251
0.9271374144622969
0.14793603338194342
-15.07044714050026
-16.59279341427459
-9.455807954120417
28.611601101544764
-10.038193369017465
19.25829012069751
-10.89258635043097
0.0794411242822175
0.8331479140911012
0.34112210969816814
